// Auto-generated model weights for beep detector neural network
// Model: Conv1D -> BN -> ReLU -> Pool -> Conv1D -> BN -> ReLU -> Pool -> Conv1D -> BN -> ReLU -> GAP -> Dense -> ReLU -> Dense -> ReLU -> Dense -> Sigmoid
#pragma once

#include <cstdint>

namespace esphome {
namespace beep_detector_nn {

// conv1d: kernel shape (3, 20, 8), bias shape (8,)
static const float conv1d_kernel[480] = {
    0.07952601f, -0.24752349f, 0.19450326f, 0.05031347f, 0.02734203f, -0.06478605f, 0.08096525f, -0.03013600f,
    0.18507038f, -0.12999742f, 0.24033128f, 0.02133644f, -0.21269694f, -0.24244584f, 0.21607687f, -0.20345269f,
    -0.04898541f, -0.14822024f, -0.21071088f, 0.16915214f, -0.35899594f, 0.05313671f, 0.03498882f, -0.01520071f,
    -0.13496901f, 0.09149375f, -0.12603863f, 0.23573238f, -0.15127057f, -0.26501748f, -0.23704502f, 0.16894805f,
    -0.16475615f, 0.10124267f, 0.14624268f, 0.21961352f, -0.02111566f, 0.03402469f, -0.16950177f, -0.19636565f,
    0.01106150f, -0.18389948f, 0.07483482f, 0.03050452f, -0.01468051f, -0.09337578f, -0.20617586f, 0.19046323f,
    0.06492370f, 0.23336269f, 0.13923876f, -0.18547800f, 0.20230825f, -0.18798123f, 0.10885722f, 0.06191152f,
    -0.08670388f, -0.13436536f, -0.06757528f, -0.10481259f, 0.30763587f, -0.02466933f, 0.13042389f, -0.18672180f,
    0.01184510f, 0.00620055f, -0.17537929f, -0.03769594f, 0.07036825f, -0.10111337f, 0.03865272f, -0.09739453f,
    0.07360879f, -0.22930454f, -0.26288870f, -0.27854204f, 0.23483461f, 0.24616632f, -0.21777511f, 0.20270860f,
    0.11734746f, 0.21848646f, -0.12061939f, -0.07107656f, -0.32059023f, 0.21030909f, -0.11758389f, 0.12304255f,
    -0.28530246f, 0.04313585f, -0.02088524f, -0.26211709f, -0.01575369f, 0.22397983f, 0.00130406f, 0.26885223f,
    0.22795996f, 0.15581249f, 0.12164247f, -0.05222608f, -0.18707587f, -0.08909328f, 0.02179249f, 0.04947426f,
    0.25826299f, 0.12987302f, 0.09362517f, 0.07846657f, -0.03746977f, -0.20726384f, 0.22178273f, 0.17001759f,
    0.13296473f, 0.11306327f, 0.11893584f, 0.03274805f, -0.19670595f, 0.02551532f, 0.07035539f, -0.11674124f,
    -0.00335919f, -0.16936471f, -0.20601417f, -0.26710060f, 0.18747942f, -0.03502980f, 0.08387186f, -0.01541844f,
    -0.21708982f, 0.16542476f, 0.03148975f, -0.25117007f, 0.12087563f, -0.23335750f, 0.18251584f, -0.13704222f,
    -0.18893874f, 0.20326804f, -0.18953039f, -0.05575516f, 0.12416853f, 0.25672856f, 0.03081214f, -0.10819699f,
    -0.15873612f, 0.07066339f, 0.06485352f, -0.05487474f, 0.17410110f, 0.16303031f, 0.07179755f, -0.12092399f,
    0.10918535f, 0.09520923f, -0.11547956f, -0.01405487f, -0.30821976f, -0.21768630f, 0.08902466f, 0.00384561f,
    0.03826879f, 0.26369539f, -0.12820061f, -0.11175263f, 0.02364523f, 0.08115334f, 0.25046390f, 0.15178882f,
    -0.01803571f, -0.23262616f, -0.02992512f, 0.00887205f, 0.10223407f, -0.01576802f, 0.06305766f, -0.00902400f,
    -0.13088191f, -0.03009637f, 0.03046451f, 0.15701272f, 0.13295414f, 0.09488131f, 0.23423071f, -0.03874432f,
    0.02753424f, -0.02334342f, 0.05496090f, 0.07490247f, -0.04880295f, -0.13801272f, -0.04192054f, -0.13659336f,
    0.09788436f, 0.23665686f, -0.19548313f, -0.01557778f, -0.04868745f, -0.06517284f, 0.15619028f, -0.17302242f,
    0.03797557f, -0.13779588f, -0.14746186f, 0.10712277f, 0.08780982f, 0.13217375f, -0.25472698f, 0.09126822f,
    0.27260610f, -0.08450226f, -0.01490995f, -0.06682651f, -0.12725377f, 0.13973646f, -0.13708682f, 0.25023907f,
    0.13371396f, -0.10858841f, -0.15195550f, 0.12794103f, 0.06293245f, -0.16696210f, -0.01074850f, -0.17144522f,
    -0.05834847f, -0.12413575f, 0.03665834f, 0.28369415f, -0.13800400f, -0.08465258f, -0.05847949f, -0.20842433f,
    0.26093516f, -0.27201447f, 0.06638003f, -0.19497146f, 0.17168885f, 0.16570337f, 0.16802576f, 0.14023182f,
    0.02483450f, 0.04859784f, 0.10514001f, -0.18049139f, 0.09964977f, -0.17705904f, -0.20891888f, -0.01258455f,
    0.09644929f, -0.06750096f, 0.23852067f, -0.13341829f, -0.05496659f, -0.10977209f, -0.09178637f, 0.05109734f,
    0.09810236f, -0.24162689f, 0.03978777f, -0.00894509f, 0.26567605f, 0.18661298f, 0.11186097f, -0.26166424f,
    0.14834847f, -0.16560282f, 0.17874779f, -0.11443470f, -0.20376685f, -0.23414055f, 0.07119454f, 0.10613299f,
    -0.15060402f, 0.35330030f, -0.21709648f, -0.17820442f, -0.19628888f, 0.16875857f, 0.11898620f, -0.15487374f,
    0.04428618f, 0.23261307f, -0.08010462f, 0.16321778f, 0.11825547f, -0.11532051f, 0.02063469f, 0.16560829f,
    0.02322692f, -0.02908803f, 0.16332628f, -0.17157011f, 0.23551112f, 0.04876809f, 0.22769056f, -0.06861372f,
    -0.00792457f, -0.18956907f, -0.04044351f, -0.10154875f, 0.02946226f, 0.15340707f, 0.20677908f, -0.04324801f,
    0.00561938f, 0.22075629f, -0.14678809f, -0.06840973f, -0.28216931f, 0.01229035f, 0.26627791f, -0.01830071f,
    0.24451041f, -0.12327675f, 0.32608753f, -0.26963419f, 0.15683173f, -0.19265850f, -0.19221741f, 0.01189031f,
    -0.08080340f, -0.10961203f, 0.04916082f, 0.07817406f, 0.10831685f, 0.30223006f, -0.12233401f, 0.06433479f,
    0.00350142f, 0.08712006f, 0.19407260f, 0.05404961f, -0.13609296f, -0.13481982f, 0.21044788f, 0.10217715f,
    -0.09067368f, 0.05519312f, 0.14806296f, -0.04372989f, -0.03597386f, 0.05035217f, -0.02049926f, -0.00908164f,
    -0.15289015f, 0.07195025f, 0.14759731f, -0.11241573f, 0.26796183f, 0.16585837f, 0.04363712f, -0.31940120f,
    0.21611525f, 0.10061154f, 0.03802175f, -0.24215665f, -0.05815027f, 0.07614647f, 0.04244563f, 0.15250584f,
    0.23664717f, -0.09426143f, 0.17414020f, 0.02550376f, -0.01376554f, 0.12906341f, -0.26098979f, -0.17632248f,
    0.27427223f, 0.06928643f, -0.22316822f, -0.11122213f, 0.03174626f, -0.08447102f, -0.06385896f, -0.13401027f,
    -0.11244248f, 0.03800475f, 0.03003717f, -0.00309573f, -0.11906563f, 0.07678180f, -0.08301044f, -0.13981964f,
    -0.01686338f, -0.33994684f, -0.16286252f, -0.11176470f, -0.08723103f, -0.08362385f, 0.07414410f, -0.08630523f,
    -0.00029681f, 0.04818283f, -0.14414284f, 0.18487838f, 0.06528146f, -0.15575498f, 0.10566199f, 0.11390185f,
    0.09252195f, 0.22780204f, 0.15228529f, -0.07037312f, -0.11137303f, -0.21545666f, -0.16341241f, 0.00398296f,
    -0.25306204f, 0.15165092f, 0.24593528f, 0.19189236f, 0.07336470f, -0.11435346f, -0.24586996f, 0.26457956f,
    -0.13708515f, 0.24227792f, 0.27817860f, -0.03356319f, 0.21354906f, 0.05818649f, 0.08165672f, 0.01093430f,
    0.00347994f, -0.09673261f, -0.03110845f, 0.20097765f, -0.19806114f, -0.01418727f, 0.24046724f, 0.24988627f,
    0.07156437f, -0.01797584f, 0.01543083f, -0.05194177f, 0.07684624f, -0.10429520f, -0.18139206f, -0.07748254f,
    -0.00702311f, 0.01146647f, -0.22562705f, -0.13842519f, 0.15024221f, -0.12998739f, 0.21335919f, -0.17880514f,
    -0.27884710f, -0.08492760f, 0.22679634f, -0.26347101f, 0.25687015f, -0.00205250f, -0.17049611f, -0.04036067f,
    -0.07695307f, -0.33224478f, 0.13189858f, -0.16395183f, 0.08617275f, 0.12875964f, -0.03817017f, -0.20735057f,
    0.20875467f, 0.20210998f, -0.17698047f, -0.17483748f, -0.28738290f, 0.02808892f, 0.32051551f, -0.01552948f,
    -0.06590187f, -0.11327058f, -0.13732345f, -0.14022124f, -0.16484618f, -0.05443035f, -0.31528938f, 0.02258892f,
};
// Shape: (3, 20, 8)
static const float conv1d_bias[8] = {
    -0.00007572f, 0.00022476f, -0.00023174f, -0.00018862f, -0.00052900f, 0.00017516f, -0.00014807f, 0.00005383f,
};
// Shape: (8,)
// batch_normalization: gamma, beta, mean, var
static const float batchnormalization_gamma[8] = {
    0.96138245f, 1.04815340f, 1.00854278f, 1.05402768f, 0.99316061f, 0.96113271f, 1.00875580f, 0.98898387f,
};
// Shape: (8,)
static const float batchnormalization_beta[8] = {
    -0.01566336f, 0.02079296f, -0.03023550f, 0.10654011f, 0.03711561f, 0.01084842f, 0.01422784f, 0.02715138f,
};
// Shape: (8,)
static const float batchnormalization_mean[8] = {
    -4.04215145f, 15.32113171f, -45.34598541f, 0.95817083f, -80.07577515f, -188.69319153f, -108.10078430f, -104.29192352f,
};
// Shape: (8,)
static const float batchnormalization_var[8] = {
    220.53089905f, 619.25726318f, 462.81164551f, 201.15527344f, 443.59600830f, 1527.24584961f, 609.61090088f, 616.80218506f,
};
// Shape: (8,)
// conv1d_1: kernel shape (3, 8, 16), bias shape (16,)
static const float conv1d1_kernel[384] = {
    -0.10711209f, 0.14308244f, -0.24303049f, 0.08643015f, -0.16453643f, 0.17384756f, -0.25899905f, 0.10609587f,
    0.03865610f, -0.05521413f, -0.18456790f, 0.06785800f, -0.17273737f, 0.08890595f, -0.21523127f, -0.25121981f,
    0.10926665f, 0.17638548f, -0.21736833f, -0.28697830f, -0.01869664f, 0.15488952f, 0.15500174f, -0.00322662f,
    0.04790169f, 0.12496836f, 0.08787043f, -0.22642340f, -0.30308682f, 0.15104213f, 0.13061416f, 0.04152907f,
    -0.17323817f, 0.08152445f, -0.22568479f, 0.14224227f, -0.09238008f, -0.25448072f, 0.01096457f, -0.21833204f,
    -0.23824915f, 0.06314561f, -0.24945466f, 0.13635258f, 0.16965471f, 0.02167419f, 0.21928252f, 0.16883735f,
    0.23233177f, 0.05419002f, 0.24415402f, -0.13132252f, 0.09644542f, 0.24841583f, -0.30029517f, 0.14341387f,
    0.27701953f, 0.03836416f, -0.23908843f, 0.17545788f, -0.18978970f, 0.22971995f, -0.00600128f, -0.31989694f,
    -0.12774697f, 0.31252259f, -0.12966380f, -0.31615219f, 0.01445396f, 0.19957425f, -0.21877345f, -0.11119344f,
    -0.00940537f, -0.02326171f, 0.04967552f, 0.16162381f, -0.11761231f, -0.12875268f, -0.25145265f, -0.05578044f,
    -0.14889812f, 0.06311904f, -0.20861232f, -0.14822862f, -0.08712599f, -0.07790470f, -0.27113169f, -0.29224458f,
    -0.29319185f, -0.24927701f, 0.10713366f, -0.22996914f, -0.20155782f, 0.20342276f, 0.18524784f, 0.19800144f,
    0.17328136f, 0.01656861f, 0.08595041f, -0.07085757f, 0.12191387f, -0.08424141f, 0.11258776f, -0.01955549f,
    0.20708290f, -0.09703370f, 0.01702688f, -0.09914156f, -0.07019422f, -0.00221883f, 0.19354747f, -0.13646342f,
    0.24249014f, -0.19585291f, -0.10729203f, 0.23327763f, -0.14468168f, 0.13826938f, -0.01367324f, 0.23345612f,
    -0.08176156f, -0.30544606f, -0.04525140f, 0.00174397f, 0.14109607f, 0.01983619f, 0.06653541f, -0.19525436f,
    -0.13199626f, 0.34295180f, 0.10140236f, 0.22957551f, 0.09528293f, 0.10133736f, -0.02285415f, -0.01292328f,
    -0.28736579f, -0.17704250f, 0.19701673f, 0.17817101f, -0.08972237f, -0.17399673f, -0.30076310f, 0.11993922f,
    0.17969269f, -0.23486188f, 0.08540149f, -0.07469597f, 0.03994160f, 0.07598412f, -0.20244621f, -0.32537341f,
    0.23866421f, 0.19988510f, -0.27900440f, 0.12453049f, -0.04048243f, 0.07965151f, 0.02922520f, -0.33703247f,
    -0.10783977f, -0.12863727f, 0.09179929f, 0.09510865f, 0.10723837f, 0.02037048f, 0.13393450f, 0.24052963f,
    0.05353570f, -0.26900190f, 0.14215410f, 0.12921505f, 0.22578207f, 0.26936796f, -0.00178827f, -0.03653102f,
    -0.19018416f, -0.24909610f, 0.14617237f, 0.07499779f, -0.30042487f, -0.04642020f, 0.06633254f, 0.06358898f,
    -0.08771928f, -0.08690576f, -0.26899004f, 0.19587187f, -0.07081831f, -0.01593267f, -0.30047134f, -0.09315890f,
    -0.27695841f, 0.10101586f, 0.19416378f, 0.03138091f, -0.15112431f, -0.12747487f, 0.21259259f, -0.05261077f,
    0.12741011f, 0.18917859f, 0.21816511f, -0.16944842f, -0.16655673f, -0.03206221f, 0.25394434f, 0.00620186f,
    -0.15279157f, 0.03422963f, -0.06251380f, -0.11363068f, 0.20668493f, 0.13108625f, -0.00850081f, -0.10983266f,
    -0.29697379f, -0.26723316f, -0.26637796f, -0.26979554f, 0.03452804f, -0.16234152f, -0.15709612f, 0.04873511f,
    -0.27494466f, 0.25550926f, -0.18004420f, -0.12377587f, -0.14432141f, 0.20998397f, -0.05951845f, 0.06280867f,
    -0.26211777f, 0.00462061f, -0.19126564f, 0.03465212f, -0.27663997f, 0.27606341f, 0.02501501f, 0.14440151f,
    0.16762134f, 0.19134714f, 0.16890772f, -0.11105908f, 0.06274660f, -0.18538566f, 0.21204969f, 0.27853668f,
    -0.02135470f, -0.33193278f, 0.11795856f, -0.21952485f, 0.13300258f, 0.14235181f, -0.17415829f, 0.29067555f,
    0.15522212f, -0.15653546f, -0.12467279f, -0.06829216f, -0.05393974f, -0.08256996f, -0.19722892f, 0.18609716f,
    -0.04936891f, -0.27837953f, -0.01649421f, -0.08126014f, -0.00898164f, 0.14100811f, -0.31899434f, -0.07088622f,
    0.08256175f, 0.23253459f, 0.20710833f, -0.06253623f, -0.18444699f, -0.24333368f, 0.20656213f, -0.15162767f,
    0.14381361f, 0.12294811f, 0.06941323f, -0.31072995f, -0.12693608f, -0.17257857f, 0.20722844f, -0.26073307f,
    0.20889461f, -0.26241627f, -0.14547436f, 0.29147837f, 0.27884415f, -0.14687933f, 0.18424463f, -0.01417198f,
    -0.08697814f, 0.12601808f, -0.25873351f, -0.24884038f, 0.07543210f, 0.08663252f, -0.16418855f, 0.25731626f,
    -0.10899185f, 0.02603839f, 0.16998012f, -0.03793288f, -0.04419691f, -0.25098002f, 0.07974131f, 0.06697267f,
    -0.01433894f, 0.12190864f, -0.27312353f, 0.19485675f, 0.04531972f, 0.06238464f, -0.00429622f, 0.04015843f,
    -0.30942202f, 0.24285702f, -0.06445779f, 0.04905051f, -0.11312776f, 0.10999253f, -0.30363184f, -0.14742377f,
    0.15102096f, 0.21819708f, 0.24404141f, 0.15290251f, 0.14487371f, 0.12934586f, 0.28839675f, -0.16848935f,
    -0.03174005f, 0.10285226f, 0.07879394f, -0.21748127f, 0.02654180f, 0.16913059f, -0.05932295f, 0.25202692f,
    0.16228032f, -0.07470790f, 0.22084379f, -0.21011592f, 0.09524923f, -0.08682035f, 0.08332276f, -0.14853659f,
    -0.21307138f, 0.01029242f, -0.02344239f, 0.13098478f, -0.13167439f, -0.02639468f, -0.16330877f, 0.11499462f,
    0.03721799f, 0.07375504f, -0.22166705f, 0.21522689f, 0.22446272f, 0.13211872f, -0.02811902f, 0.09169362f,
    0.11363260f, -0.13751467f, 0.00667943f, 0.21981207f, 0.23026273f, 0.11654500f, -0.23058371f, 0.20910746f,
    -0.22367917f, -0.19116430f, -0.07923556f, 0.00050118f, -0.10219833f, 0.02388322f, -0.18588085f, -0.04744997f,
};
// Shape: (3, 8, 16)
static const float conv1d1_bias[16] = {
    -0.00052077f, 0.00203913f, -0.00086033f, -0.00030893f, 0.01280919f, 0.00136078f, 0.00153513f, 0.00068957f,
    -0.00067443f, -0.00034486f, -0.00118600f, 0.00070936f, -0.00316422f, 0.00077493f, -0.00056257f, 0.00404667f,
};
// Shape: (16,)
// batch_normalization_1: gamma, beta, mean, var
static const float batchnormalization1_gamma[16] = {
    1.00985384f, 1.01185918f, 0.96904653f, 0.97485006f, 1.04479969f, 1.02826464f, 1.01633096f, 0.94382203f,
    0.97278726f, 0.98529553f, 1.01658309f, 0.94761306f, 0.97926652f, 0.98401725f, 1.03938234f, 1.04178500f,
};
// Shape: (16,)
static const float batchnormalization1_beta[16] = {
    -0.00592127f, 0.04296480f, 0.04964863f, -0.03543935f, 0.03415461f, -0.02400208f, -0.02057053f, -0.07925962f,
    -0.04397133f, 0.01602529f, 0.05122751f, -0.01838435f, 0.01524753f, -0.00830064f, 0.00417719f, -0.00582765f,
};
// Shape: (16,)
static const float batchnormalization1_mean[16] = {
    -0.39115760f, 0.45326462f, 0.05860777f, -0.06606493f, -0.18209007f, 0.15727693f, -0.34896198f, 0.29467222f,
    -0.18424255f, -0.47354993f, -0.47510672f, -0.01512273f, -0.25829303f, 0.51477188f, -0.19723015f, -0.32984945f,
};
// Shape: (16,)
static const float batchnormalization1_var[16] = {
    0.39837185f, 0.26433778f, 0.28933582f, 0.18545613f, 0.05923033f, 0.11002770f, 0.31490570f, 0.34925005f,
    0.29683885f, 0.70316231f, 0.66109449f, 0.47038454f, 0.09246538f, 0.23589310f, 0.31968534f, 0.15857846f,
};
// Shape: (16,)
// conv1d_2: kernel shape (3, 16, 32), bias shape (32,)
static const float conv1d2_kernel[1536] = {
    -0.17403294f, -0.11888161f, -0.07945987f, 0.14196038f, -0.13142674f, 0.18076901f, 0.10088886f, 0.05203631f,
    -0.11411483f, -0.17330450f, 0.16407946f, 0.10177438f, 0.04388813f, 0.23695210f, -0.20760550f, -0.09344165f,
    0.14155674f, 0.16875423f, -0.22797556f, 0.17075676f, 0.14996193f, 0.03736693f, -0.17376463f, 0.13804325f,
    0.12458979f, -0.05562459f, 0.13433957f, -0.15547790f, 0.10196880f, -0.23496582f, -0.10352518f, -0.18118714f,
    -0.00462508f, 0.12408750f, 0.05040246f, 0.05373077f, 0.02931307f, 0.17042997f, 0.15148093f, 0.11578859f,
    0.10147342f, 0.10490313f, 0.07962751f, 0.03957677f, 0.16334261f, -0.25527966f, -0.03471730f, -0.09904209f,
    0.06117493f, 0.08936659f, 0.18912205f, -0.13014744f, -0.09559160f, -0.17289643f, 0.11251028f, 0.03873856f,
    -0.13435468f, 0.05154568f, 0.10158008f, -0.08335281f, -0.14874142f, -0.00216592f, -0.13988085f, -0.16815846f,
    -0.18494169f, -0.11616298f, 0.23337750f, -0.13637738f, -0.10957008f, 0.08712994f, -0.12966217f, 0.15063003f,
    0.07018224f, -0.02598004f, -0.15595964f, 0.09609263f, -0.04576539f, -0.01427396f, 0.07551918f, 0.18889421f,
    0.04373880f, -0.08939712f, -0.08947286f, 0.03246895f, -0.18591394f, 0.13018019f, 0.07145733f, 0.10227550f,
    -0.02929263f, 0.14384292f, -0.01431680f, -0.06868390f, 0.17730677f, 0.13361451f, 0.04849266f, 0.11982954f,
    0.12271402f, 0.04858634f, -0.00273694f, 0.21514326f, -0.14341459f, -0.00817199f, -0.13715781f, 0.06679137f,
    0.18000434f, -0.08426516f, -0.04278292f, -0.17332681f, 0.11350437f, 0.13774642f, 0.13516641f, -0.08988809f,
    0.00183826f, 0.18942216f, -0.22793990f, 0.22340477f, 0.09468991f, -0.07750234f, -0.04226565f, 0.06587519f,
    -0.05276991f, -0.08810744f, 0.25890020f, 0.05715939f, 0.00649773f, -0.01783877f, -0.16377382f, -0.21466561f,
    -0.08250286f, 0.18834227f, 0.07789066f, 0.02627442f, 0.22569296f, 0.05569691f, -0.08280604f, 0.18853681f,
    -0.08127159f, 0.13552660f, -0.10651636f, -0.02078449f, 0.05630267f, 0.14951162f, -0.07385487f, -0.04974100f,
    0.06753997f, 0.14799002f, -0.06839634f, 0.10187414f, -0.02530339f, 0.05770148f, 0.19636099f, -0.13145596f,
    -0.02744230f, 0.04718848f, 0.13311081f, -0.23354754f, 0.09433021f, 0.04730895f, 0.03274578f, 0.05559629f,
    0.12753783f, 0.19601825f, 0.07706774f, -0.12364163f, -0.05322576f, -0.12852225f, 0.00838232f, 0.04530451f,
    0.14525431f, 0.10879234f, -0.01787039f, 0.22738259f, -0.12484590f, 0.09383953f, 0.20618376f, 0.10572535f,
    0.15339923f, 0.04013314f, 0.04756115f, 0.06150068f, -0.00270433f, -0.07986809f, -0.14551212f, 0.08429597f,
    0.14825423f, -0.17208433f, 0.02909712f, 0.01760447f, 0.06198948f, 0.00562256f, 0.13003242f, 0.09930960f,
    -0.00267130f, -0.09624230f, -0.07807116f, 0.06398086f, -0.09236109f, -0.21227340f, -0.03066424f, -0.15420593f,
    -0.01157453f, 0.00159201f, 0.08152820f, -0.07014531f, 0.04361506f, -0.15581468f, -0.00264352f, 0.19775064f,
    0.02651324f, -0.13860530f, -0.09599029f, -0.08491102f, -0.21801068f, 0.13810608f, 0.05183757f, -0.18014570f,
    -0.05143875f, 0.07459681f, -0.01547801f, 0.01451227f, -0.03380959f, -0.07690913f, -0.06245742f, -0.15581121f,
    -0.01041957f, -0.22592984f, -0.05460538f, -0.04157808f, 0.14629257f, 0.05318400f, 0.07044964f, -0.21403632f,
    -0.04780223f, -0.10999522f, 0.13501383f, -0.03602826f, 0.03616545f, -0.04984522f, -0.11867007f, 0.06368409f,
    -0.15007149f, -0.14995539f, 0.16874841f, 0.07323758f, 0.14571157f, 0.00837684f, -0.08749106f, -0.00455155f,
    -0.06576500f, 0.05267800f, 0.13794668f, -0.04728723f, -0.11537576f, -0.08186965f, 0.13812724f, 0.13999154f,
    0.17106339f, -0.06248245f, 0.19934444f, -0.08217812f, -0.11848979f, -0.19380759f, 0.10020658f, 0.13562350f,
    -0.12633581f, -0.05946622f, 0.17754984f, -0.00023735f, 0.15207011f, -0.15005240f, -0.14880879f, 0.09769738f,
    -0.00705407f, 0.14451873f, -0.06383672f, 0.08804590f, -0.04175593f, -0.04757895f, -0.20751810f, -0.08305411f,
    -0.15909459f, 0.11107367f, 0.06746459f, -0.14074196f, -0.08371055f, 0.07695188f, -0.19128989f, -0.07165393f,
    -0.12320125f, -0.11519020f, -0.01006134f, -0.00400803f, 0.11469019f, -0.04061183f, -0.16844247f, -0.01860155f,
    0.19702165f, -0.11687404f, -0.12690035f, -0.01480468f, -0.15296078f, -0.07194887f, -0.09084623f, -0.03036060f,
    0.04833361f, 0.01942628f, 0.03602411f, 0.04834486f, 0.08036519f, 0.07998604f, -0.02535139f, 0.18135090f,
    0.10019643f, 0.17229907f, -0.06228844f, 0.14108582f, -0.14306292f, 0.14800604f, -0.04866431f, 0.02941214f,
    -0.02197248f, -0.11201661f, -0.03236235f, 0.00064837f, 0.09169525f, 0.15638271f, -0.00109962f, -0.11430333f,
    -0.08628150f, 0.10527472f, -0.26978993f, 0.01512702f, 0.15040089f, -0.02657845f, 0.15069091f, -0.07251889f,
    -0.18518074f, -0.20004410f, 0.07258537f, -0.12929024f, 0.01728746f, 0.15174705f, -0.03112691f, -0.13112652f,
    0.16152900f, 0.19709007f, 0.13762237f, 0.09841666f, -0.00431942f, 0.03152691f, -0.05819207f, -0.13778439f,
    0.05848350f, 0.12302262f, 0.14897002f, 0.08060601f, -0.07455269f, 0.09352365f, 0.01523019f, -0.19475494f,
    -0.12765661f, 0.14805262f, 0.03748093f, -0.15052068f, -0.00802004f, 0.07816245f, 0.01181341f, 0.12574187f,
    0.14991799f, -0.05333707f, 0.08904938f, -0.00705204f, 0.09758409f, 0.18492909f, 0.12906624f, 0.24989350f,
    -0.01130814f, 0.03376661f, 0.00085091f, 0.17562996f, -0.23159386f, 0.13277164f, 0.09991755f, -0.13040745f,
    0.08800773f, 0.10202747f, -0.07862965f, 0.08561646f, 0.11399310f, -0.14406064f, -0.09250805f, 0.00053576f,
    -0.22693369f, -0.10241760f, 0.13643087f, -0.13727523f, -0.07938181f, 0.10302512f, -0.19880620f, 0.14320987f,
    -0.17115009f, 0.09552671f, 0.03148192f, -0.00365481f, 0.13321343f, -0.14566241f, 0.14639589f, -0.10139401f,
    0.04920550f, 0.01214400f, 0.13280721f, -0.04162773f, 0.12387697f, 0.02656957f, 0.13589562f, -0.11984193f,
    0.13917923f, 0.03801407f, -0.00483845f, 0.04900791f, -0.09291209f, 0.04569225f, 0.02176951f, -0.16082487f,
    0.05666762f, 0.06402598f, -0.07580763f, -0.10041638f, 0.03429166f, 0.08637528f, 0.03656205f, -0.04552446f,
    -0.18353747f, -0.04305185f, -0.03618312f, -0.12579143f, 0.07518186f, -0.18293186f, 0.10781851f, 0.07438061f,
    -0.20964307f, 0.09793948f, 0.14646377f, 0.05365333f, -0.07169617f, -0.04330607f, -0.06792285f, -0.01697015f,
    -0.17853296f, 0.12210982f, -0.10039891f, 0.15130170f, 0.03086545f, -0.08634118f, -0.02506328f, 0.09497742f,
    -0.01453428f, -0.08107204f, -0.16717520f, 0.02846828f, -0.21181804f, 0.14556174f, -0.10285251f, -0.19414136f,
    0.07912989f, -0.14355919f, -0.05115199f, 0.18027698f, -0.14986093f, -0.22952786f, -0.02460080f, -0.03774258f,
    0.17470220f, -0.11819788f, -0.18683822f, -0.15277079f, 0.11468176f, -0.01592090f, 0.00896333f, 0.13942708f,
    -0.19014882f, 0.14614199f, 0.10929053f, -0.05690147f, 0.15153542f, -0.04973387f, -0.13548629f, 0.18318330f,
    0.15010346f, -0.12671572f, 0.17353046f, -0.21151714f, -0.14798464f, 0.19977796f, 0.16048510f, -0.01806100f,
    -0.18992086f, 0.06286854f, -0.08691989f, -0.05792625f, 0.10384500f, 0.13673764f, -0.12582394f, 0.14103469f,
    -0.11988137f, 0.04365334f, -0.06023565f, -0.09542699f, 0.01673391f, 0.13867752f, 0.11341121f, 0.13198735f,
    -0.00109307f, -0.01595810f, 0.15190952f, -0.06098245f, 0.14714575f, -0.13881490f, 0.04953530f, 0.16363502f,
    0.14288367f, -0.10928549f, -0.09662210f, 0.09077562f, 0.02348422f, -0.03901097f, -0.09548013f, -0.01936786f,
    -0.17361076f, -0.14406164f, -0.02987011f, -0.15821809f, -0.09559843f, -0.05686047f, 0.12846890f, 0.13783604f,
    -0.10135929f, 0.00853595f, -0.08700620f, -0.11690151f, 0.07451667f, -0.15082943f, 0.21887192f, 0.12487195f,
    0.12138940f, 0.05509461f, 0.23373823f, 0.04097309f, -0.03647687f, -0.10016498f, 0.05550208f, -0.10856375f,
    -0.12632449f, 0.07261559f, -0.17589355f, -0.11112530f, -0.17334382f, 0.12072868f, -0.01433599f, 0.15870824f,
    -0.16914755f, -0.11200384f, 0.06957062f, -0.16679759f, 0.07394262f, -0.08777397f, -0.13951132f, 0.13823344f,
    -0.08866124f, 0.12157067f, -0.04316578f, 0.10831597f, 0.00128901f, 0.11783384f, -0.13218197f, 0.14531244f,
    -0.12985377f, -0.09468942f, 0.15287168f, 0.02455308f, 0.06931234f, -0.02674622f, -0.14594811f, 0.10760457f,
    -0.14549424f, 0.08307933f, 0.15410030f, -0.17999142f, 0.14043270f, 0.12679058f, -0.03227020f, 0.00240535f,
    -0.06106047f, 0.13287750f, 0.15079504f, -0.12550130f, -0.13114993f, -0.03962200f, -0.12385046f, 0.05562098f,
    0.00685809f, 0.10541663f, -0.02828197f, 0.19466157f, 0.14644898f, -0.08421452f, -0.08682627f, -0.11495531f,
    -0.13415378f, 0.11589157f, 0.14669847f, 0.19898801f, 0.13518585f, -0.08553094f, 0.01241277f, -0.02652690f,
    0.06719448f, -0.09296022f, -0.01130425f, -0.00277316f, 0.14905179f, -0.06976704f, -0.16699912f, 0.04522915f,
    -0.06618513f, 0.13470237f, 0.07058838f, -0.11261343f, -0.08876681f, -0.11390043f, 0.11421391f, 0.20683031f,
    -0.04435424f, 0.14183383f, -0.08876158f, 0.14364821f, -0.14197461f, 0.05813388f, -0.09888047f, -0.18387738f,
    0.19373761f, -0.07820413f, -0.13643599f, 0.10715406f, -0.08675060f, 0.04223548f, -0.05087145f, 0.19286159f,
    0.03915646f, 0.13312420f, -0.12179034f, -0.09940089f, -0.01079650f, -0.14391582f, -0.13883319f, 0.01705385f,
    -0.02901529f, 0.14945874f, -0.02459557f, 0.18367341f, 0.11930873f, -0.22805955f, -0.17801331f, 0.05649015f,
    0.06519984f, 0.13447066f, 0.10191007f, 0.11433361f, 0.13399869f, -0.22086789f, 0.20212346f, -0.15141729f,
    -0.03680930f, 0.16262318f, 0.08713368f, -0.21476123f, -0.02816694f, -0.09312852f, 0.05429737f, -0.02415066f,
    0.13594818f, 0.13477224f, 0.15337805f, 0.11739330f, -0.14492285f, -0.06137030f, -0.11730538f, 0.11473764f,
    -0.16462955f, -0.00972964f, -0.02572638f, 0.04917964f, -0.18449450f, -0.15371262f, 0.21850114f, -0.15317777f,
    -0.06805480f, 0.18623699f, 0.04353436f, -0.02044895f, -0.09557369f, -0.19360022f, -0.05747464f, 0.14218821f,
    -0.14437765f, -0.11001190f, 0.19837435f, 0.22169821f, 0.06419999f, -0.07076626f, 0.16299936f, 0.01796577f,
    0.07957844f, -0.06459917f, -0.16478482f, -0.12476218f, 0.10263272f, -0.23121847f, -0.00300275f, -0.15279643f,
    0.03992786f, -0.15086858f, -0.14371027f, 0.09020492f, 0.13211559f, 0.06040718f, 0.02524852f, -0.18987575f,
    -0.04262184f, 0.13702871f, -0.02418916f, -0.14853281f, 0.11250874f, -0.12125495f, 0.20368429f, 0.00790401f,
    0.20156670f, -0.03059229f, 0.22294413f, 0.05860145f, -0.13235418f, -0.00117029f, 0.02802370f, 0.00790642f,
    0.18106377f, 0.02475684f, 0.01320197f, -0.18415892f, 0.13062051f, 0.10643429f, 0.02227167f, -0.00737336f,
    -0.16366833f, -0.11468878f, -0.08360521f, -0.07448829f, 0.15065962f, -0.00217697f, 0.09382726f, -0.18770967f,
    -0.18857317f, 0.09835649f, 0.08760869f, 0.12066422f, -0.13599396f, 0.01489642f, 0.13934408f, 0.06473462f,
    -0.11905643f, -0.11570704f, -0.19728969f, -0.05191980f, 0.08229037f, -0.10382235f, -0.13208050f, 0.19809780f,
    0.01991778f, -0.21146776f, 0.11016005f, -0.12654239f, 0.15501653f, 0.09793869f, 0.02785807f, -0.07512572f,
    -0.15467276f, 0.00795951f, -0.19022343f, -0.11051613f, 0.00306290f, -0.13529286f, 0.06433325f, -0.14227438f,
    -0.00214042f, -0.04267555f, 0.18545464f, -0.16860807f, 0.12667643f, -0.05789436f, -0.07014426f, 0.04661299f,
    -0.02066038f, -0.01832271f, -0.07437252f, 0.07265177f, -0.01766538f, 0.14836958f, 0.05012149f, -0.18489814f,
    0.00091809f, -0.09960011f, 0.00380256f, 0.12880607f, -0.16894919f, -0.11384405f, 0.14649849f, -0.14550480f,
    -0.19745670f, 0.02045619f, -0.08059666f, 0.06447376f, -0.15692312f, 0.10316592f, -0.03068183f, -0.03295860f,
    -0.02229169f, -0.15355155f, -0.03330443f, 0.18146332f, -0.01240660f, 0.13441281f, 0.11939858f, -0.11079814f,
    -0.06633946f, -0.05495365f, -0.08378651f, 0.10606961f, -0.19134505f, 0.20866577f, 0.05111402f, -0.18334195f,
    0.05828700f, -0.15729953f, -0.11199177f, -0.03922694f, -0.12069183f, -0.09782987f, 0.07155801f, -0.01285351f,
    0.07556937f, 0.02771296f, -0.12500711f, -0.03509909f, 0.13763992f, -0.00333770f, 0.08831325f, -0.03802728f,
    -0.00571490f, 0.19780144f, -0.24983051f, -0.03167915f, 0.03027145f, -0.13447097f, 0.07882813f, 0.07254026f,
    -0.11288191f, 0.06098412f, 0.13403840f, -0.01513687f, -0.06787638f, -0.19396684f, 0.00016274f, -0.19949366f,
    -0.18257962f, 0.11453556f, -0.15838325f, -0.22548263f, -0.00316893f, 0.07523574f, 0.05619034f, 0.12923256f,
    -0.16090780f, -0.17161447f, -0.04020448f, 0.12631135f, -0.02420815f, 0.19214529f, 0.09724883f, -0.03429987f,
    0.15598913f, -0.09756676f, -0.03827504f, 0.02696388f, 0.06326635f, -0.07507106f, 0.11100024f, -0.13024944f,
    -0.20737723f, 0.07901248f, 0.18637802f, 0.23792969f, 0.19263142f, -0.09394562f, -0.13811773f, -0.12204976f,
    -0.14999402f, 0.09391718f, -0.00627556f, -0.23704793f, 0.10401119f, -0.09860988f, -0.12135792f, 0.04715164f,
    -0.12568189f, 0.16795030f, -0.18541019f, -0.12542358f, 0.00249950f, -0.14359732f, -0.01116907f, 0.08272353f,
    -0.20781913f, -0.01178431f, -0.00433275f, 0.02063020f, -0.08444258f, 0.09187981f, 0.13389975f, 0.00980457f,
    -0.12771675f, -0.07280707f, -0.11322347f, 0.12362301f, -0.04858192f, 0.20617756f, 0.02063139f, -0.05960388f,
    -0.17542788f, -0.04099327f, -0.13268673f, -0.14547159f, -0.22078532f, -0.10430581f, 0.15933119f, -0.00980581f,
    0.06654128f, -0.16263556f, 0.14204615f, -0.10903220f, -0.23940188f, 0.01166859f, 0.16093950f, -0.09748279f,
    0.07610229f, 0.00099850f, -0.21266137f, -0.06270560f, -0.17157851f, 0.14745766f, 0.08246087f, 0.01762372f,
    0.14930794f, -0.21003571f, -0.10817499f, 0.20663325f, -0.09690747f, 0.02288201f, -0.04120781f, -0.20362009f,
    0.15729341f, -0.25311068f, -0.04528439f, 0.00138860f, -0.04739842f, -0.08007689f, -0.18862991f, -0.21967757f,
    0.02219865f, -0.06336448f, -0.17076042f, -0.16592550f, -0.07809407f, 0.01917872f, -0.16548455f, 0.16723233f,
    -0.11509157f, 0.08796129f, 0.18899624f, -0.10489433f, -0.13656557f, -0.00099800f, 0.17355391f, 0.00790861f,
    -0.16332102f, -0.00754656f, 0.15958349f, -0.08966185f, 0.22837380f, -0.19522206f, -0.14306527f, 0.17613482f,
    -0.14303325f, -0.17147475f, 0.04082863f, -0.10133871f, 0.09584619f, -0.13469459f, -0.10619038f, -0.17595637f,
    0.08164040f, 0.04635844f, 0.11203750f, 0.21490182f, -0.04541138f, -0.21027197f, 0.14575088f, -0.16558807f,
    0.03468313f, -0.03816274f, 0.03425661f, -0.03796103f, -0.00301378f, 0.08779006f, 0.09969858f, 0.05973924f,
    -0.12799419f, -0.08906139f, 0.06621933f, 0.00448912f, -0.08566985f, 0.00763588f, 0.03909276f, -0.07536791f,
    0.00773876f, 0.16682044f, 0.16864982f, 0.04824476f, -0.01157509f, -0.08356999f, 0.02029096f, -0.04455180f,
    0.16797097f, 0.19151439f, -0.19983706f, -0.06522545f, 0.01580321f, -0.11353665f, -0.05815200f, -0.04405520f,
    -0.01242249f, -0.13718887f, -0.11297628f, -0.05928889f, -0.09955478f, -0.02818230f, -0.02636527f, -0.07908683f,
    0.14863728f, -0.04483354f, -0.05270292f, 0.04263908f, 0.05818783f, 0.03606595f, 0.08810200f, -0.18717486f,
    0.15840295f, 0.02717643f, -0.06305866f, 0.17981370f, -0.01117867f, -0.21556066f, -0.00424736f, 0.09862313f,
    0.19693162f, 0.00279535f, 0.00845161f, -0.04329778f, -0.12301336f, 0.13286243f, 0.06273673f, -0.14221688f,
    -0.02874371f, 0.25411403f, 0.00898454f, 0.09550883f, 0.08058767f, 0.19326130f, 0.07882649f, 0.17078826f,
    0.11324026f, -0.06092540f, -0.19424252f, 0.06301365f, 0.17905653f, -0.04640387f, 0.03987969f, 0.02498735f,
    -0.24542606f, 0.12512574f, 0.06667232f, -0.12873670f, -0.08402136f, 0.06150335f, -0.04584827f, 0.06065695f,
    0.08968404f, 0.22350065f, 0.11328813f, -0.10652351f, 0.22998056f, 0.20042439f, -0.15760796f, 0.14443798f,
    -0.09428541f, 0.06314762f, -0.19297303f, 0.08600531f, 0.20276807f, 0.16422725f, 0.00513406f, -0.00854463f,
    -0.16643253f, -0.18600784f, -0.00818604f, -0.06974965f, -0.06773733f, 0.02481704f, -0.15743688f, -0.10526673f,
    0.06657060f, 0.09797361f, -0.17652702f, 0.13017130f, 0.10742635f, 0.15560217f, -0.11082089f, 0.03953271f,
    0.16830602f, 0.12311910f, 0.06896702f, 0.13440953f, 0.15565552f, -0.12915948f, -0.03724163f, -0.09098092f,
    -0.18828996f, 0.08367895f, 0.02018136f, -0.18214925f, 0.16361640f, 0.13567093f, -0.09192948f, -0.17766106f,
    0.14127380f, -0.11648343f, 0.01651345f, 0.01127688f, 0.09309796f, -0.12267292f, -0.16898762f, 0.15755041f,
    -0.00624477f, -0.20144589f, -0.16369833f, -0.04112670f, 0.23554003f, 0.12298289f, -0.14441158f, 0.07163629f,
    0.04517218f, -0.01230766f, -0.24410002f, 0.03585046f, 0.27301353f, -0.08893133f, -0.07995953f, -0.18754478f,
    0.21364948f, -0.11163028f, 0.16332102f, 0.05673021f, 0.08949715f, -0.20893835f, 0.25095269f, 0.05620258f,
    -0.15081142f, 0.21093376f, 0.15579021f, -0.08909721f, 0.06404038f, -0.12942676f, -0.05088465f, -0.10048699f,
    0.05534953f, -0.14756660f, -0.14779776f, -0.16486034f, -0.16004479f, 0.00327187f, -0.02267225f, -0.06330692f,
    0.04311030f, -0.17915139f, 0.01606659f, 0.01624633f, -0.18340829f, 0.00092596f, -0.09185854f, -0.20502888f,
    0.06576798f, 0.10556018f, -0.05856653f, -0.10435966f, -0.01168738f, -0.15981887f, -0.06739929f, -0.22706378f,
    0.16483906f, 0.10257479f, 0.07303080f, -0.06566055f, 0.15869455f, -0.06160349f, 0.12828131f, 0.03158559f,
    -0.15011434f, -0.06478547f, 0.06943218f, -0.01126070f, 0.15890276f, 0.06587616f, -0.09627959f, 0.20335062f,
    -0.23214541f, 0.12225389f, 0.13518631f, 0.23240109f, 0.14093985f, -0.00841663f, 0.14044651f, -0.14091150f,
    0.10571160f, 0.19285443f, -0.10803282f, -0.04941984f, 0.05131773f, -0.16560563f, 0.16644512f, 0.16153356f,
    0.04235464f, 0.20431966f, 0.16522588f, 0.20219289f, -0.19262910f, -0.11609880f, -0.07084320f, 0.01981475f,
    0.01744716f, -0.05937302f, 0.09780110f, 0.05911549f, 0.00655399f, 0.00052449f, 0.00271460f, 0.17780490f,
    -0.00836240f, 0.05760184f, 0.15734479f, 0.08250053f, -0.00074961f, 0.15997458f, 0.06524341f, 0.17276186f,
    0.18018919f, 0.06421173f, 0.02111507f, -0.11442408f, -0.15230703f, -0.09786258f, -0.05963415f, -0.18753158f,
    0.18043575f, 0.14049596f, -0.15543780f, -0.06106771f, 0.01356139f, 0.03632803f, -0.16417928f, -0.15443383f,
    0.12165881f, -0.10084868f, -0.06598487f, -0.15001093f, -0.01919339f, -0.10886927f, -0.02920040f, -0.11783433f,
    0.12384927f, 0.10792381f, 0.06389186f, 0.18179055f, 0.17964363f, 0.12325957f, -0.02480943f, -0.14381017f,
    -0.12762064f, 0.17352958f, -0.06187386f, -0.01723265f, -0.11860990f, -0.05130835f, -0.09207454f, 0.19752091f,
    0.03295955f, -0.12938428f, -0.04261042f, 0.15417245f, 0.05628504f, -0.10222648f, -0.12005826f, -0.12850104f,
    0.09224683f, 0.25539628f, 0.03827965f, 0.09470163f, -0.08586928f, 0.12544970f, 0.12639786f, -0.12203154f,
    -0.20141664f, -0.14897148f, 0.06393950f, -0.09281906f, 0.10417714f, 0.18653698f, 0.02144644f, 0.08926235f,
    0.13628352f, -0.01772209f, -0.01267944f, 0.08042901f, -0.18059582f, -0.11809934f, 0.14034772f, -0.06060245f,
    0.11402757f, -0.02309457f, -0.02319456f, -0.20951800f, 0.00527297f, 0.14728419f, 0.05964960f, -0.01168535f,
    0.11136805f, -0.19590540f, -0.13058314f, -0.07593323f, 0.05095439f, 0.01463137f, -0.08015501f, 0.02005586f,
    0.18447822f, 0.10171223f, -0.18847576f, -0.08473752f, -0.04438209f, -0.07561779f, 0.17013532f, 0.09046569f,
    0.20990118f, 0.20954543f, -0.22109503f, 0.10652486f, -0.11620406f, 0.11241965f, -0.12433659f, 0.03925997f,
    0.02293688f, -0.12719792f, 0.10804252f, 0.10439201f, 0.01211084f, -0.15553406f, -0.04802110f, -0.04986713f,
    0.13938873f, -0.09812416f, -0.03430421f, 0.08767569f, 0.04269985f, 0.05408597f, 0.20197730f, -0.14422637f,
    0.07343318f, -0.02111289f, -0.02954436f, -0.02737210f, -0.16935009f, 0.17896055f, 0.00097719f, -0.07581661f,
    0.03884220f, -0.12369376f, 0.00634628f, -0.00597575f, -0.05201227f, 0.08973830f, -0.16707772f, -0.13354288f,
    -0.17424937f, 0.09168492f, -0.10624098f, -0.00012222f, 0.17016335f, 0.01755818f, 0.13381255f, -0.08466847f,
    -0.09150650f, -0.14996658f, 0.07335596f, 0.17213285f, 0.05215108f, 0.04816699f, 0.03415971f, -0.03158946f,
    0.08215155f, -0.05239749f, -0.14729071f, 0.00298558f, 0.13640589f, 0.00269095f, -0.04529511f, -0.01908321f,
    -0.05584462f, 0.05871416f, -0.05599574f, 0.09624543f, -0.04280473f, -0.07733037f, 0.09161283f, -0.01641490f,
    -0.07960916f, -0.13726568f, -0.10564309f, -0.19025633f, -0.14626354f, 0.05823643f, 0.13020846f, 0.06113062f,
    -0.08428679f, 0.00811756f, -0.07747424f, -0.09316192f, -0.10483531f, -0.20286299f, -0.00049111f, 0.02935096f,
    -0.08333611f, 0.04465264f, -0.08024320f, -0.03756505f, 0.11812995f, -0.10070560f, -0.19914185f, 0.08192045f,
    0.03903262f, -0.03006879f, 0.13753551f, 0.04502368f, -0.04736075f, -0.04782586f, 0.12821761f, -0.01959515f,
    0.03043326f, -0.06474217f, -0.00589590f, -0.04542021f, -0.00417345f, -0.06313768f, 0.13000317f, 0.12354743f,
    0.02884131f, -0.11929764f, -0.06660612f, 0.19574252f, -0.09756216f, -0.10485926f, -0.11727477f, -0.04685346f,
    -0.11789076f, 0.16504303f, -0.16279806f, 0.04314276f, -0.07965088f, 0.09719121f, -0.14188379f, 0.02632233f,
    -0.06463566f, 0.07580639f, -0.10952803f, -0.07432400f, 0.05811676f, -0.22108936f, -0.09790730f, 0.01827637f,
    -0.18573944f, -0.21656962f, -0.17883313f, -0.01919987f, 0.09089360f, -0.19596316f, 0.01680874f, 0.13673402f,
    0.10845492f, -0.16588280f, -0.15437452f, 0.14530739f, 0.10633579f, 0.23971595f, -0.02602567f, -0.28361306f,
    0.08003835f, 0.18726002f, -0.21560960f, 0.01282472f, 0.17076942f, -0.00166855f, 0.05944369f, -0.18401451f,
    -0.04763701f, -0.16642147f, 0.21957096f, -0.14850841f, 0.13375399f, 0.14106061f, 0.03853653f, -0.14461209f,
};
// Shape: (3, 16, 32)
static const float conv1d2_bias[32] = {
    -0.00179019f, -0.00169711f, 0.00044674f, -0.00077388f, 0.00097502f, 0.00046509f, -0.00065977f, -0.00125192f,
    -0.00073485f, -0.00104773f, -0.00073862f, -0.00055389f, -0.00028036f, -0.00014919f, -0.00159342f, 0.00056954f,
    -0.00100060f, 0.00194236f, -0.00279509f, -0.00243528f, -0.00042391f, -0.00004953f, -0.00069109f, -0.00090701f,
    -0.00086779f, 0.00020466f, 0.00035437f, 0.00046251f, -0.00021784f, 0.00033925f, -0.00072306f, -0.00029838f,
};
// Shape: (32,)
// batch_normalization_2: gamma, beta, mean, var
static const float batchnormalization2_gamma[32] = {
    1.06644487f, 1.15473902f, 0.98180860f, 0.95227993f, 0.99070954f, 1.08966076f, 1.03398860f, 1.00069880f,
    1.02290368f, 1.19981802f, 0.99880666f, 0.98677123f, 1.09491277f, 1.03571093f, 1.23071671f, 1.12578082f,
    1.06482303f, 1.05278707f, 1.27324939f, 0.92721480f, 1.07231021f, 1.04111612f, 1.02382672f, 1.01165700f,
    0.98222762f, 1.07965636f, 0.99832332f, 1.04034364f, 1.01182091f, 1.08910179f, 1.02701926f, 1.02200365f,
};
// Shape: (32,)
static const float batchnormalization2_beta[32] = {
    0.04747973f, 0.12738012f, -0.01607345f, -0.07915959f, -0.06239269f, 0.07485963f, 0.04590860f, -0.02644869f,
    0.03182714f, 0.12878732f, -0.01673861f, -0.00072940f, 0.02466353f, 0.04554062f, 0.16258056f, 0.09423832f,
    0.06306183f, -0.03731304f, 0.18664329f, -0.08145645f, -0.04194463f, 0.02707038f, 0.04995822f, 0.01449175f,
    -0.02151633f, 0.03439817f, -0.00798469f, 0.05351499f, 0.00865692f, 0.10211293f, 0.05389111f, 0.03263835f,
};
// Shape: (32,)
static const float batchnormalization2_mean[32] = {
    -0.33546039f, -0.19867922f, 0.51814753f, 0.65916514f, 0.30486333f, -0.44259289f, -0.26849484f, -0.21556503f,
    0.18641587f, -0.61814857f, -0.55951071f, -0.63709939f, 0.04770434f, -0.04505582f, -0.48567885f, -0.17054598f,
    -0.38004640f, 0.31293246f, -0.77116281f, 0.00580096f, 0.24756970f, -0.22899841f, 0.05957470f, -0.14164296f,
    -0.14409143f, 1.00219274f, 0.17684880f, -0.10208385f, -0.19462518f, -0.26554841f, 0.58626378f, -0.35010374f,
};
// Shape: (32,)
static const float batchnormalization2_var[32] = {
    0.24021237f, 0.36578688f, 0.41234973f, 0.35455376f, 0.18633403f, 0.14519201f, 0.15315093f, 0.25634360f,
    0.27774948f, 0.30507529f, 0.23988073f, 0.68273562f, 0.17734832f, 0.15671286f, 0.24332671f, 0.24606062f,
    0.27985391f, 0.16008128f, 0.31942800f, 0.18678772f, 0.22683284f, 0.61119080f, 0.19097856f, 0.17940831f,
    0.24350640f, 0.35971752f, 0.36414096f, 0.23172714f, 0.15897688f, 0.30704308f, 0.23352125f, 0.26290792f,
};
// Shape: (32,)
// dense: kernel shape (32, 16), bias shape (16,)
static const float dense_kernel[512] = {
    0.16806614f, 0.16674016f, 0.17434478f, 0.08572733f, -0.24806117f, 0.26167202f, 0.13436528f, 0.24252863f,
    0.41205141f, 0.36031073f, -0.18185569f, 0.05067924f, -0.30107918f, 0.23842302f, 0.06442210f, 0.15224676f,
    0.00645184f, 0.26161364f, 0.32864654f, 0.38481915f, 0.03531648f, 0.00929495f, 0.24665719f, -0.28826264f,
    -0.19277273f, 0.34609279f, 0.27255106f, 0.03158205f, 0.00008407f, 0.01643363f, 0.26742771f, -0.15701693f,
    -0.38358808f, 0.32467043f, 0.32871747f, -0.15029329f, 0.16105242f, 0.24456421f, 0.17528255f, -0.33840111f,
    -0.04936431f, 0.26596829f, -0.14980243f, 0.20728526f, -0.27940217f, 0.35717008f, -0.16042934f, 0.26030552f,
    -0.09652337f, 0.00474840f, -0.25781736f, -0.30143532f, -0.32277891f, -0.03668812f, -0.05047602f, 0.04380636f,
    -0.18422264f, 0.26854569f, 0.19368590f, -0.26415998f, 0.04328142f, 0.02961646f, -0.17174090f, 0.06484362f,
    0.24650370f, -0.30016595f, -0.19892965f, -0.18076275f, -0.03716817f, -0.03658519f, 0.21217752f, 0.01668839f,
    0.22560921f, -0.21754645f, 0.12374137f, -0.15360712f, 0.18030581f, -0.01457624f, 0.17943029f, 0.25913340f,
    0.09665289f, -0.01598980f, 0.09906017f, 0.10376901f, -0.04075701f, 0.13984852f, 0.02245955f, 0.17332192f,
    0.39746800f, -0.14638871f, 0.00785229f, -0.08123574f, -0.38434240f, -0.07675798f, 0.34906438f, -0.36116087f,
    -0.07430727f, -0.08691598f, -0.29001302f, 0.25330284f, -0.11789092f, -0.20174962f, -0.24514121f, 0.25744405f,
    0.07220656f, 0.35548529f, -0.04906723f, -0.30973819f, 0.23009543f, 0.26613703f, 0.39926675f, 0.17382072f,
    0.16230887f, -0.23658717f, -0.31864294f, -0.31164128f, -0.16981316f, 0.26529923f, -0.03924426f, -0.08092348f,
    0.17919064f, -0.07852418f, 0.06828752f, 0.34996146f, 0.28800279f, 0.03227793f, 0.30014250f, 0.22872916f,
    0.03405377f, 0.30051917f, 0.33813184f, 0.14692725f, -0.25067493f, 0.26016518f, 0.33048680f, 0.11372958f,
    0.29535246f, 0.33910772f, -0.17650479f, -0.23044197f, -0.11039429f, -0.13119327f, 0.26795772f, 0.12630224f,
    0.15313463f, 0.37345654f, 0.15191622f, 0.26172644f, 0.32272747f, 0.35795656f, -0.34760386f, 0.15415382f,
    0.05256907f, 0.23017842f, -0.06008051f, 0.24926044f, -0.28654698f, 0.47764540f, 0.41428262f, -0.42060876f,
    0.02692496f, -0.14567780f, 0.36713266f, -0.02272635f, 0.29037336f, -0.08263330f, 0.33187518f, -0.22228715f,
    -0.26400891f, -0.28502730f, 0.00176151f, 0.28992727f, 0.12659888f, -0.16917959f, -0.08791194f, -0.26959249f,
    -0.34447607f, 0.36546153f, 0.16125160f, -0.02057532f, 0.25208300f, 0.33522683f, -0.01448148f, -0.25847909f,
    -0.28366485f, 0.02619900f, -0.08733352f, -0.28183800f, -0.24449527f, 0.26034614f, -0.08714814f, 0.07474250f,
    -0.02447787f, 0.04157688f, -0.25466254f, -0.08017235f, -0.32351771f, -0.01938935f, 0.19162077f, -0.00817341f,
    -0.04487938f, -0.36554796f, 0.36941388f, -0.21589065f, -0.31616420f, -0.01849714f, 0.35074601f, 0.14017817f,
    0.06997188f, -0.21645559f, -0.21875651f, 0.36722249f, -0.14916272f, -0.08871216f, -0.19968350f, -0.06899964f,
    -0.23530567f, 0.22559971f, 0.40504548f, -0.07801548f, 0.18489729f, 0.26967022f, 0.26842317f, 0.23848057f,
    -0.21629341f, -0.09375481f, 0.53176093f, 0.16747935f, 0.03585774f, -0.03791089f, 0.05440075f, -0.31612238f,
    -0.09438074f, 0.29164007f, 0.08150436f, -0.15904431f, -0.23511608f, 0.13476229f, 0.13865852f, -0.44883716f,
    0.17341095f, 0.38786092f, 0.11758821f, 0.13755669f, -0.28896603f, -0.25105929f, -0.28328210f, 0.13323145f,
    0.43327904f, 0.22149368f, -0.37689048f, 0.04804105f, -0.33600581f, -0.21332827f, 0.29197660f, -0.30989954f,
    0.22386228f, 0.22501120f, -0.04414735f, 0.19406977f, 0.28949916f, 0.07263535f, 0.02679623f, -0.33393458f,
    -0.16503939f, -0.24350251f, 0.33218428f, 0.30045995f, 0.23927689f, 0.21450400f, 0.17208956f, -0.26841012f,
    0.02755267f, -0.34224263f, -0.21747139f, -0.25255397f, 0.05862197f, -0.18645123f, -0.17521220f, -0.25980625f,
    -0.12062502f, 0.01202943f, 0.30697244f, 0.00394239f, 0.13998710f, -0.23822676f, -0.13790692f, 0.24563862f,
    0.09860343f, 0.26110235f, 0.13230254f, 0.28057021f, 0.27022654f, -0.05612257f, -0.21770401f, 0.17236494f,
    0.43523780f, 0.48871186f, 0.04412153f, -0.28905067f, -0.26823828f, 0.50653571f, 0.25748995f, -0.15809368f,
    -0.17818925f, -0.30716157f, -0.29876423f, -0.18491235f, 0.23361270f, 0.22513787f, 0.00362354f, 0.09169214f,
    0.04765077f, 0.06115506f, -0.04493206f, 0.20720591f, -0.00725145f, -0.03834511f, -0.27110952f, 0.12859537f,
    -0.20639952f, 0.11112584f, -0.16858290f, -0.23474661f, -0.32480392f, -0.28556275f, -0.33612433f, -0.07094959f,
    -0.35534969f, -0.05170816f, 0.14688770f, -0.08229756f, 0.18777248f, -0.27991840f, 0.32862771f, 0.22392778f,
    0.22298427f, -0.20619097f, -0.16189604f, 0.21352145f, 0.02739093f, -0.25940365f, 0.12746087f, -0.12309825f,
    0.06174316f, 0.14984356f, 0.01336824f, 0.39478120f, 0.26549354f, 0.24378617f, 0.17166120f, 0.02406178f,
    -0.02960371f, 0.21137606f, 0.08290005f, 0.36631161f, 0.24303144f, 0.17370574f, 0.24120067f, -0.15676111f,
    -0.03327737f, -0.06013152f, 0.30332503f, -0.22658810f, -0.06629348f, 0.20339188f, 0.14001189f, 0.22937807f,
    0.03709713f, -0.26722199f, 0.35840145f, 0.29996854f, -0.37754095f, -0.23593748f, -0.30533367f, 0.23584275f,
    0.14581150f, 0.34442219f, 0.14410353f, 0.04520553f, -0.09693529f, -0.18927932f, 0.04725207f, 0.28007102f,
    0.29302603f, 0.37676790f, 0.32017884f, 0.09864199f, -0.00518784f, 0.32526216f, -0.05474637f, 0.10052713f,
    0.22286555f, -0.22221357f, 0.19474873f, -0.22903718f, 0.12630588f, -0.15359825f, -0.17997637f, 0.04820210f,
    -0.28718656f, 0.18396649f, -0.15980573f, -0.04890932f, -0.04193833f, -0.12606622f, -0.17187208f, 0.08271211f,
    0.17630263f, -0.12957828f, -0.28288859f, -0.27719596f, 0.00395947f, 0.21670423f, -0.03502814f, -0.28357702f,
    0.21507782f, -0.19662908f, 0.36923322f, -0.10227285f, -0.11158674f, -0.33631605f, 0.19510552f, -0.15211262f,
    0.07688992f, -0.27401984f, 0.35584214f, 0.25325033f, -0.01773362f, 0.07210512f, 0.12399792f, 0.18023564f,
    0.31019562f, 0.06937679f, 0.38198835f, 0.29286936f, -0.24128968f, -0.24998151f, 0.11385118f, -0.27019602f,
    -0.13718905f, -0.24690102f, -0.06240781f, -0.15093121f, 0.01884352f, 0.08748730f, -0.01995221f, -0.13208908f,
    -0.22897007f, 0.12007120f, 0.13651061f, -0.29407141f, -0.22390586f, 0.04711533f, -0.34012264f, -0.06705100f,
    -0.04121244f, -0.00813221f, -0.14976254f, 0.35749823f, 0.21236172f, -0.06286413f, 0.38069990f, 0.23197390f,
    0.29241139f, -0.23103219f, 0.26352739f, 0.35026115f, 0.11292611f, -0.36403847f, 0.27323484f, -0.16556799f,
    0.30282223f, 0.26172045f, 0.33557057f, -0.29675397f, 0.16607569f, 0.00771008f, 0.42548338f, -0.31599760f,
    -0.30838206f, 0.03362045f, 0.23069173f, 0.30446687f, -0.18956469f, -0.19476138f, -0.35091892f, 0.20756620f,
    0.12697692f, -0.04557712f, 0.24100441f, 0.22828721f, 0.22063823f, -0.19140333f, -0.01593237f, 0.17581978f,
    0.10999466f, 0.27574977f, -0.02623147f, 0.35913342f, -0.30397594f, 0.07626231f, -0.22829129f, 0.09804700f,
    0.26795810f, 0.13237864f, 0.01184844f, 0.01579149f, 0.34046349f, -0.07626393f, -0.23832789f, 0.04449948f,
};
// Shape: (32, 16)
static const float dense_bias[16] = {
    -0.03283978f, 0.07004881f, 0.06482938f, 0.05686592f, -0.01324051f, -0.00493498f, -0.01076635f, -0.02189211f,
    0.04489673f, 0.04654144f, 0.04667115f, 0.05782630f, -0.01599286f, 0.05125429f, 0.07121284f, -0.05656889f,
};
// Shape: (16,)
// dense_1: kernel shape (16, 8), bias shape (8,)
static const float dense1_kernel[128] = {
    -0.14950667f, -0.14599673f, -0.40076384f, -0.08805329f, 0.03353996f, -0.20033473f, -0.32361913f, -0.45390019f,
    0.75350398f, 0.50165969f, 0.18079637f, 0.43326110f, -0.38339597f, -0.11669880f, 0.01138722f, -0.46255499f,
    0.52099878f, -0.04919454f, 0.17482860f, 0.20728864f, -0.58037937f, -0.24865311f, 0.04375974f, -0.28744644f,
    0.61346996f, -0.14948900f, -0.12304297f, 0.41163808f, 0.08869180f, 0.44192132f, 0.01425647f, -0.38447449f,
    -0.41993022f, 0.22271760f, -0.12893337f, -0.20516784f, -0.26008552f, -0.34483275f, 0.20006461f, -0.11327559f,
    0.45314115f, 0.53145182f, -0.13537736f, -0.30741388f, -0.01273056f, 0.01895731f, -0.05782938f, -0.28318197f,
    -0.35175005f, -0.46420932f, -0.34045023f, -0.09019592f, 0.04223820f, 0.17708594f, -0.31292909f, -0.03732924f,
    0.42577341f, 0.43829313f, 0.32388672f, -0.41897553f, -0.49867186f, -0.20773001f, 0.13118429f, -0.11170383f,
    0.43353274f, 0.05661950f, -0.51348376f, 0.34988296f, -0.02489688f, -0.08466686f, -0.01005924f, -0.29347324f,
    -0.02587327f, -0.17496219f, -0.29384863f, 0.30270565f, -0.16527201f, -0.12897336f, -0.46558505f, 0.00191577f,
    0.34733352f, -0.37711990f, 0.01081374f, -0.18372314f, 0.30597547f, 0.07529851f, 0.48630273f, -0.12790056f,
    -0.13953276f, 0.06858612f, 0.36331671f, 0.08324761f, 0.41115952f, -0.42770392f, -0.10516717f, -0.41012079f,
    -0.51590347f, -0.09800819f, 0.06699199f, -0.20067966f, -0.24143668f, 0.18499658f, 0.43695378f, -0.02363234f,
    0.62677175f, -0.13237140f, -0.00789403f, 0.38893798f, -0.48872840f, -0.44113633f, -0.05938069f, -0.40267318f,
    0.06644711f, -0.01730148f, 0.27557030f, 0.46845731f, 0.21847537f, -0.47550365f, -0.09374547f, 0.37010354f,
    -0.35540983f, 0.06863064f, 0.28209880f, -0.31989735f, 0.36233404f, 0.39046493f, 0.44416136f, 0.11502329f,
};
// Shape: (16, 8)
static const float dense1_bias[8] = {
    0.02061267f, -0.00332827f, 0.09994849f, 0.02160452f, 0.10135917f, -0.06244345f, 0.07870160f, 0.16600582f,
};
// Shape: (8,)
// dense_2: kernel shape (8, 1), bias shape (1,)
static const float dense2_kernel[8] = {
    0.72442108f, 0.07965942f, -0.91533428f, 0.83235919f, -0.92036051f, 0.59799618f, -0.57627249f, -0.56982785f,
};
// Shape: (8, 1)
static const float dense2_bias[1] = {
    -0.05191213f,
};
// Shape: (1,)

// Model configuration
static const int INPUT_FRAMES = 50;
static const int INPUT_FEATURES = 20;
static const int CONV1_FILTERS = 8;
static const int CONV2_FILTERS = 16;
static const int CONV3_FILTERS = 32;
static const int DENSE1_UNITS = 16;
static const int DENSE2_UNITS = 8;

}  // namespace beep_detector_nn
}  // namespace esphome
