// Auto-generated model weights for beep_detector_nn
// Model: 2-layer CNN for 250ms window (25 frames x 20 MFCC)
#pragma once

#include <cstdint>
// Total parameters: 833
// Total size: 3332 bytes (3.3 KB)


// conv1d: kernel shape (3, 20, 8)
static const float conv1d_kernel[] = {
    0.12606627f, -0.17222241f, 0.01909872f, -0.00061052f, -0.23570736f, 0.13380097f, 0.08860335f, -0.14036895f,
    0.30232427f, 0.08067416f, -0.07814852f, 0.23556654f, 0.19460580f, 0.09569488f, -0.00320057f, -0.20743583f,
    0.01764250f, 0.05876546f, -0.14734334f, 0.00232197f, -0.05514551f, 0.08146359f, 0.23972264f, 0.10382786f,
    0.22960708f, 0.11343693f, 0.09198274f, -0.24168795f, -0.29401881f, -0.00228629f, 0.32810107f, -0.17272207f,
    -0.19445977f, 0.07448823f, -0.14000444f, -0.33798632f, 0.22879672f, 0.14701024f, 0.08998635f, -0.02674720f,
    -0.02755545f, -0.24475485f, -0.03687413f, 0.31297743f, -0.00592357f, 0.26515540f, -0.09437343f, -0.27840966f,
    0.21418114f, 0.00523877f, 0.12254898f, 0.04581957f, 0.12919287f, 0.15776774f, -0.16773093f, -0.17859843f,
    0.13959095f, 0.03735710f, 0.24994625f, 0.06484449f, 0.10883263f, 0.08988627f, 0.11276446f, -0.13059002f,
    -0.35941127f, 0.23690805f, -0.05066844f, 0.36215973f, 0.28661290f, 0.08885701f, 0.00693363f, -0.19293658f,
    0.04076855f, 0.03548582f, -0.06645410f, -0.03843819f, 0.01917480f, -0.06154368f, 0.06059603f, -0.17765883f,
    -0.09235443f, -0.07083569f, -0.07934634f, 0.24539500f, -0.15936023f, -0.10425999f, 0.00358862f, -0.06327147f,
    -0.07601489f, 0.00115912f, -0.00200435f, 0.09603682f, -0.09899543f, -0.26163027f, 0.03960718f, -0.13145140f,
    0.16031370f, 0.28469446f, 0.08185047f, -0.09781533f, -0.10164438f, -0.03885693f, -0.11947898f, 0.16359822f,
    -0.18248065f, 0.20926224f, -0.14386731f, -0.14880244f, -0.05567462f, 0.26078242f, 0.02963661f, 0.46764782f,
    0.06567296f, 0.22144367f, -0.10210761f, 0.25956810f, -0.00916787f, 0.06293224f, 0.35571849f, 0.31984317f,
    -0.22983091f, 0.05040066f, 0.00793523f, -0.00510535f, 0.04507045f, 0.50950968f, 0.01290269f, 0.29343522f,
    0.22064897f, 0.25834647f, -0.03575616f, -0.06548080f, 0.31096467f, 0.02502117f, 0.18419822f, -0.04360964f,
    0.26337487f, -0.16977687f, 0.22988477f, 0.02366525f, 0.09603053f, 0.20035942f, 0.01237656f, -0.22624670f,
    -0.05379657f, 0.01019740f, -0.23865505f, 0.18180653f, -0.39416510f, 0.21063831f, 0.07701825f, -0.05886384f,
    0.48126560f, 0.29491052f, -0.27777016f, 0.44951165f, -0.23487395f, -0.00162737f, -0.12614451f, 0.14460944f,
    0.14212631f, 0.26579177f, 0.22845563f, 0.18792152f, 0.13708091f, 0.22405550f, -0.11006498f, 0.00719401f,
    -0.21558912f, -0.02029057f, 0.11083954f, 0.02916179f, 0.00664831f, -0.24069194f, -0.10049521f, -0.17637157f,
    -0.29427046f, 0.21243033f, 0.04373655f, 0.06638027f, -0.15960392f, -0.14923297f, -0.05002817f, 0.22202228f,
    0.12878312f, -0.13968530f, -0.17590149f, 0.11162464f, 0.04997694f, 0.34793875f, -0.07652049f, -0.15539514f,
    0.11713252f, -0.09855982f, 0.15571731f, 0.09964096f, 0.16286536f, -0.24348898f, 0.29929546f, 0.03851692f,
    0.20733309f, -0.20902209f, 0.03725090f, 0.13866739f, -0.14141926f, 0.04579184f, 0.05472657f, 0.13716716f,
    -0.00380834f, 0.03407531f, -0.20316172f, 0.08220756f, 0.08996748f, 0.21612266f, 0.16311453f, -0.18501753f,
    0.03795972f, -0.19408293f, -0.22206835f, 0.06581061f, 0.02022622f, -0.02979405f, -0.07643297f, 0.08834672f,
    0.02119820f, -0.08111286f, 0.03552317f, 0.29090178f, 0.15933143f, -0.00687963f, -0.06787883f, 0.11452259f,
    -0.37033740f, -0.38816828f, 0.03692150f, -0.18079685f, -0.24505678f, 0.13714489f, -0.09013873f, 0.00580005f,
    0.18525346f, 0.27841461f, -0.26107138f, -0.14157368f, 0.00016214f, -0.14239882f, 0.16151272f, 0.24092466f,
    0.13441430f, -0.00807691f, -0.52919841f, 0.20715943f, 0.16821869f, -0.28640193f, -0.11041115f, 0.36933842f,
    0.37417620f, -0.16396010f, 0.04594909f, 0.08105847f, -0.09040498f, -0.00289272f, 0.16345322f, -0.18168728f,
    0.19576837f, 0.23246381f, 0.05290074f, -0.12127930f, 0.01391061f, 0.27095932f, 0.19176766f, -0.03494897f,
    -0.02880248f, 0.27775365f, -0.22109057f, 0.21080281f, 0.15871885f, -0.04873218f, 0.35853797f, 0.05387013f,
    -0.13017282f, -0.21820731f, 0.11114994f, -0.05380164f, 0.27657226f, 0.12523760f, -0.15843308f, 0.05917181f,
    -0.08688176f, 0.13254584f, 0.00133406f, 0.13741192f, 0.23262897f, 0.06122097f, 0.14305198f, 0.27011445f,
    -0.01630952f, 0.08610895f, 0.02198273f, 0.22096537f, 0.20679428f, -0.03245185f, -0.08835877f, 0.18143958f,
    0.06285883f, 0.01547787f, 0.09390879f, -0.14542818f, -0.06711946f, -0.19769041f, 0.12208563f, -0.05519068f,
    0.08252923f, 0.15537567f, -0.10052627f, 0.07509996f, 0.02314871f, -0.00184883f, 0.10027525f, -0.02442916f,
    -0.15420310f, -0.04976046f, 0.03678040f, 0.24147178f, -0.07270397f, 0.19727053f, 0.17366104f, 0.16296433f,
    0.18936422f, -0.03748018f, 0.03147532f, 0.05870758f, -0.09927193f, -0.03027268f, 0.05532528f, -0.03052128f,
    -0.16002589f, 0.25762904f, -0.01096400f, -0.11368726f, -0.23980761f, 0.03171468f, -0.03007762f, 0.26512265f,
    0.33662081f, -0.00531082f, 0.08829591f, -0.28514743f, 0.11145516f, 0.04202139f, 0.17252921f, -0.10952020f,
    0.06168070f, 0.21397351f, 0.18751031f, -0.01180473f, -0.02000870f, 0.22528368f, 0.34295589f, -0.03334896f,
    0.18296121f, 0.01607477f, 0.11127488f, 0.18824224f, 0.29644462f, 0.04602734f, 0.23757315f, 0.11716225f,
    -0.09769419f, -0.18119410f, 0.11705297f, 0.00373416f, -0.19941546f, 0.19910234f, -0.20129092f, 0.05441258f,
    0.01236351f, -0.13016772f, 0.23045376f, 0.01806744f, -0.10551307f, 0.00770098f, -0.07161132f, -0.25455695f,
    -0.38578293f, 0.15115885f, 0.20276429f, -0.02698779f, -0.11491720f, 0.30506030f, -0.09345973f, 0.15069638f,
    -0.04965570f, -0.28505144f, 0.11793627f, -0.29819542f, 0.05669532f, -0.10157475f, 0.18140057f, 0.11986209f,
    0.16146128f, -0.05267975f, -0.37354958f, -0.04589256f, -0.07531050f, -0.37154925f, -0.07489590f, 0.15504152f,
    -0.12851186f, 0.31031507f, -0.08596235f, -0.00263775f, 0.13409057f, -0.25541928f, 0.00014613f, 0.07831623f,
    -0.01100328f, -0.05849962f, -0.08893102f, 0.01529719f, 0.34068361f, -0.01703203f, -0.11129359f, 0.27683955f,
    0.06640957f, 0.13824821f, 0.07754754f, 0.20809977f, 0.10595676f, -0.03865362f, -0.08486285f, 0.37465739f,
    -0.28655753f, 0.03325262f, 0.07205968f, 0.13696207f, 0.08491358f, -0.08665113f, 0.50973690f, 0.04924406f,
    -0.25393298f, 0.00049616f, 0.14806880f, 0.06043419f, 0.03857759f, 0.18614276f, -0.28701115f, -0.17877527f,
    0.02226829f, -0.18103977f, 0.13963412f, 0.25608334f, 0.21033244f, -0.02799033f, -0.02014414f, 0.27278671f,
    -0.06844871f, 0.24824679f, 0.33226112f, -0.20647503f, 0.35770431f, 0.26364976f, 0.01833540f, 0.02408422f,
    -0.02773833f, 0.04595193f, -0.14640467f, 0.08580483f, -0.03555479f, 0.19992545f, 0.25112733f, -0.20305586f,
    0.28692111f, 0.46266925f, -0.08580874f, 0.07475670f, -0.02550446f, -0.02257510f, -0.03116825f, 0.10954208f,
};
static const float conv1d_bias[] = {
    0.00043708f, -0.00001504f, 0.00036537f, -0.00018300f, 0.00001372f, 0.00007298f, -0.00011094f, -0.00004288f,
};

// batch_normalization: 8 channels
static const float batch_normalization_gamma[] = {
    1.02896070f, 1.04189968f, 1.03490543f, 0.98303092f, 1.04477143f, 0.92811793f, 0.98311454f, 1.04012656f,
};
static const float batch_normalization_beta[] = {
    0.02358313f, -0.06489220f, 0.10176696f, -0.16098654f, -0.15003966f, 0.09102255f, -0.04408325f, 0.00545367f,
};
static const float batch_normalization_mean[] = {
    -36.51174927f, -46.58549881f, -141.81141663f, -216.87394714f, 102.31896973f, -259.79180908f, -68.87447357f, -66.08628845f,
};
static const float batch_normalization_var[] = {
    830.48425293f, 619.77606201f, 660.68249512f, 2245.98217773f, 1080.56811523f, 2499.02490234f, 716.81219482f, 800.43927002f,
};

// conv1d_1: kernel shape (3, 8, 8)
static const float conv1d_1_kernel[] = {
    0.25642049f, 0.15869503f, -0.18846381f, -0.20961513f, 0.25811264f, -0.02805953f, -0.11167136f, -0.18474275f,
    0.19693211f, -0.16426142f, 0.28502491f, -0.01170547f, 0.27122840f, -0.13190532f, 0.02778527f, -0.13270183f,
    -0.05974273f, -0.06604813f, 0.11820702f, -0.16755337f, -0.43218583f, -0.05319742f, 0.07475299f, -0.28694147f,
    0.16204891f, -0.28300723f, 0.21075174f, -0.02507829f, 0.08804241f, -0.19643192f, 0.26755685f, 0.15616496f,
    -0.12545899f, -0.01793306f, 0.18225925f, -0.24449202f, -0.27578032f, 0.39819193f, 0.10977261f, -0.04054098f,
    0.08764410f, 0.07645174f, -0.35549414f, -0.16126002f, 0.03021215f, -0.34749386f, 0.11484034f, -0.14893460f,
    -0.23277383f, -0.26432112f, -0.31272274f, 0.02541644f, -0.20619524f, 0.28309581f, 0.10005951f, -0.24078555f,
    -0.16538946f, -0.21238920f, 0.12571585f, -0.12706631f, 0.23252422f, 0.10352117f, 0.26664239f, 0.29407492f,
    -0.18958309f, -0.07170069f, 0.23552413f, -0.47422263f, 0.21704362f, -0.25557867f, 0.15281698f, 0.17891830f,
    -0.38661161f, 0.05599903f, 0.13431627f, -0.17933193f, -0.10917069f, -0.19667582f, 0.25961503f, -0.29566082f,
    0.19777611f, 0.22401860f, 0.02217983f, 0.05376422f, 0.13720505f, 0.29883587f, -0.44477785f, -0.11064720f,
    -0.38389364f, 0.09355337f, 0.09067412f, 0.09847202f, 0.13970987f, 0.06764168f, 0.12759207f, 0.19006588f,
    0.51190817f, -0.40797964f, -0.00861997f, 0.09106627f, 0.22146662f, -0.14711019f, 0.01838508f, -0.02228055f,
    0.16365610f, 0.10555785f, 0.13356355f, 0.22843170f, 0.14318947f, -0.04166036f, -0.00473593f, -0.26228485f,
    0.23112284f, -0.13688785f, 0.15188809f, 0.10078996f, -0.36219779f, 0.21517964f, 0.02653239f, -0.01377886f,
    0.10503408f, -0.10991722f, 0.37489349f, -0.08699106f, 0.08104411f, 0.20324746f, -0.09577484f, 0.06235594f,
    -0.14081952f, -0.16896640f, 0.11488955f, 0.07234235f, 0.37286037f, 0.12689447f, 0.40892172f, 0.13912785f,
    -0.12210489f, 0.11488598f, 0.06691808f, -0.32123956f, -0.08198606f, 0.14491022f, 0.04194855f, -0.32993373f,
    0.32777643f, -0.09320463f, 0.06734322f, -0.13879246f, -0.32374948f, 0.03912963f, 0.13062990f, -0.01484240f,
    -0.17593434f, 0.29408935f, 0.24408066f, 0.03490701f, -0.08037405f, -0.38040981f, 0.09644149f, 0.20907865f,
    0.23056203f, -0.03062728f, -0.03200001f, -0.15146801f, -0.14182092f, 0.09755757f, 0.11418892f, 0.17680107f,
    0.12120402f, -0.05982922f, -0.15683438f, -0.16146582f, 0.06559762f, 0.09073866f, -0.13113196f, -0.39764211f,
    -0.13933663f, 0.04950051f, -0.06132425f, -0.21252361f, -0.11328742f, 0.33130154f, -0.51044035f, -0.02634417f,
    0.14567128f, -0.40147325f, 0.25387913f, -0.29458174f, 0.15944430f, 0.01892397f, 0.37678090f, -0.35766748f,
};
static const float conv1d_1_bias[] = {
    0.01620274f, 0.00076121f, -0.00008955f, -0.00023320f, 0.00664246f, -0.00527022f, -0.00414374f, -0.00101460f,
};

// batch_normalization_1: 8 channels
static const float batch_normalization_1_gamma[] = {
    1.45360351f, 1.17018485f, 1.05354655f, 1.15668714f, 1.32850778f, 1.32693315f, 1.06087971f, 1.02998114f,
};
static const float batch_normalization_1_beta[] = {
    0.34421304f, 0.07773281f, -0.04588707f, -0.02290077f, 0.06201282f, 0.22186281f, -0.09357950f, -0.00025917f,
};
static const float batch_normalization_1_mean[] = {
    0.33364946f, -0.31132606f, 0.47530505f, -0.76632714f, 0.05380496f, 0.15591332f, 0.36592185f, -0.61874557f,
};
static const float batch_normalization_1_var[] = {
    0.16091718f, 0.09852184f, 0.26549506f, 0.19066530f, 0.12140072f, 0.11388699f, 0.09721200f, 0.31918165f,
};

// dense: 8 -> 8
static const float dense_kernel[] = {
    0.62687540f, -0.46505791f, -0.02736851f, 1.03419816f, -0.03114175f, -0.57196212f, 0.67316753f, 0.71920210f,
    0.07097469f, 0.06093480f, -0.66178602f, 0.22077453f, -0.51670647f, -0.22049935f, 0.31850946f, -0.28879663f,
    -0.28475863f, 0.54727131f, -0.24682519f, -0.12768902f, 0.57336527f, 0.63547313f, 0.09027136f, 0.16652878f,
    -0.07843053f, 0.57497722f, 0.21886264f, 0.18386792f, -0.60961515f, -0.40038392f, -0.32526299f, -0.22293536f,
    -0.19086567f, 0.80424213f, -0.13077189f, 0.14845456f, -0.20462325f, 0.44224143f, -0.08775563f, -0.29986143f,
    0.79734683f, -0.22646028f, -0.43811628f, 0.90044749f, -0.03056458f, -0.51836485f, 0.42745769f, 0.61356336f,
    0.04236658f, 0.11595006f, -0.12587854f, -0.49675736f, -0.02370214f, 0.38900572f, -0.32162130f, -0.23789841f,
    -0.18513681f, 0.42528138f, 0.47535715f, 0.10124487f, -0.41268906f, 0.51176322f, -0.38293201f, 0.48066279f,
};
static const float dense_bias[] = {
    0.26533595f, -0.04473949f, 0.00716535f, 0.04079042f, 0.05244645f, -0.01262602f, 0.31553334f, 0.17963587f,
};

// dense_1: 8 -> 1
static const float dense_1_kernel[] = {
    0.63975680f, -0.36290810f, 1.01409471f, 0.18242544f, -0.54529804f, -1.02437449f, 1.00593078f, 0.72583401f,
};
static const float dense_1_bias[] = {
    0.01102698f,
};
